network unknown {
}
variable D1 {
   type discrete[ 2 ] { 0, 1 };
}
variable D2 {
   type discrete[ 2 ] { 0, 1 };
}
variable R1 {
   type discrete[ 2 ] { 0, 1 };
}
variable R2 {
   type discrete[ 2 ] { 0, 1 };
}
variable R3 {
   type discrete[ 2 ] { 0, 1 };
}
variable H1 {
   type discrete[ 2 ] { 0, 1 };
}
variable H2 {
   type discrete[ 2 ] { 0, 1 };
}
variable H3 {
   type discrete[ 2 ] { 0, 1 };
}
variable H4 {
   type discrete[ 2 ] { 0, 1 };
}
variable H5 {
   type discrete[ 2 ] { 0, 1 };
}
variable H6 {
   type discrete[ 2 ] { 0, 1 };
}
variable H7 {
   type discrete[ 2 ] { 0, 1 };
}
variable H8 {
   type discrete[ 2 ] { 0, 1 };
}
variable H9 {
   type discrete[ 2 ] { 0, 1 };
}
variable G1 {
   type discrete[ 2 ] { 0, 1 };
}
variable G2 {
   type discrete[ 2 ] { 0, 1 };
}
variable G3 {
   type discrete[ 2 ] { 0, 1 };
}
variable N1 {
   type discrete[ 2 ] { 0, 1 };
}
variable N2 {
   type discrete[ 2 ] { 0, 1 };
}
variable N3 {
   type discrete[ 2 ] { 0, 1 };
}
variable N4 {
   type discrete[ 2 ] { 0, 1 };
}
variable er_R_0 {
   type discrete[ 2 ] { 0, 1 };
}
variable er_R_1 {
   type discrete[ 2 ] { 0, 1 };
}
variable er_R_2 {
   type discrete[ 2 ] { 0, 1 };
}
variable er_R_3 {
   type discrete[ 2 ] { 0, 1 };
}
variable er_R_4 {
   type discrete[ 2 ] { 0, 1 };
}
variable er_R_5 {
   type discrete[ 2 ] { 0, 1 };
}
variable er_0_1 {
   type discrete[ 2 ] { 0, 1 };
}
variable er_0_2 {
   type discrete[ 2 ] { 0, 1 };
}
variable er_0_3 {
   type discrete[ 2 ] { 0, 1 };
}
variable er_0_4 {
   type discrete[ 2 ] { 0, 1 };
}
variable er_0_5 {
   type discrete[ 2 ] { 0, 1 };
}
variable er_1_2 {
   type discrete[ 2 ] { 0, 1 };
}
variable er_1_3 {
   type discrete[ 2 ] { 0, 1 };
}
variable er_1_4 {
   type discrete[ 2 ] { 0, 1 };
}
variable er_1_5 {
   type discrete[ 2 ] { 0, 1 };
}
variable er_2_3 {
   type discrete[ 2 ] { 0, 1 };
}
variable er_2_4 {
   type discrete[ 2 ] { 0, 1 };
}
variable er_2_5 {
   type discrete[ 2 ] { 0, 1 };
}
variable er_3_4 {
   type discrete[ 2 ] { 0, 1 };
}
variable er_3_5 {
   type discrete[ 2 ] { 0, 1 };
}
variable er_4_5 {
   type discrete[ 2 ] { 0, 1 };
}
variable er_P_1 {
   type discrete[ 2 ] { 0, 1 };
}
variable er_P_2 {
   type discrete[ 2 ] { 0, 1 };
}
variable er_P_3 {
   type discrete[ 2 ] { 0, 1 };
}
variable er_K {
   type discrete[ 2 ] { 0, 1 };
}
variable er_A_0 {
   type discrete[ 2 ] { 0, 1 };
}
variable er_A_1 {
   type discrete[ 2 ] { 0, 1 };
}
variable er_A_2 {
   type discrete[ 2 ] { 0, 1 };
}
variable er_A_3 {
   type discrete[ 2 ] { 0, 1 };
}
variable er_A_4 {
   type discrete[ 2 ] { 0, 1 };
}
variable er_A_5 {
   type discrete[ 2 ] { 0, 1 };
}
variable er_0_G1 {
   type discrete[ 2 ] { 0, 1 };
}
variable er_1_G1 {
   type discrete[ 2 ] { 0, 1 };
}
variable er_2_G1 {
   type discrete[ 2 ] { 0, 1 };
}
variable er_3_G1 {
   type discrete[ 2 ] { 0, 1 };
}
variable er_4_G1 {
   type discrete[ 2 ] { 0, 1 };
}
variable er_5_G1 {
   type discrete[ 2 ] { 0, 1 };
}
variable er_P_4 {
   type discrete[ 2 ] { 0, 1 };
}
variable er_EXT {
   type discrete[ 2 ] { 0, 1 };
}
variable er {
   type discrete[ 2 ] { 0, 1 };
}
variable mysql_R_0 {
   type discrete[ 2 ] { 0, 1 };
}
variable mysql_R_1 {
   type discrete[ 2 ] { 0, 1 };
}
variable mysql_R_2 {
   type discrete[ 2 ] { 0, 1 };
}
variable mysql_0_1 {
   type discrete[ 2 ] { 0, 1 };
}
variable mysql_0_2 {
   type discrete[ 2 ] { 0, 1 };
}
variable mysql_1_2 {
   type discrete[ 2 ] { 0, 1 };
}
variable mysql_P_1 {
   type discrete[ 2 ] { 0, 1 };
}
variable mysql_K {
   type discrete[ 2 ] { 0, 1 };
}
variable mysql_A_0 {
   type discrete[ 2 ] { 0, 1 };
}
variable mysql_A_1 {
   type discrete[ 2 ] { 0, 1 };
}
variable mysql_A_2 {
   type discrete[ 2 ] { 0, 1 };
}
variable mysql_0_G2 {
   type discrete[ 2 ] { 0, 1 };
}
variable mysql_1_G2 {
   type discrete[ 2 ] { 0, 1 };
}
variable mysql_2_G2 {
   type discrete[ 2 ] { 0, 1 };
}
variable mysql_EXT {
   type discrete[ 2 ] { 0, 1 };
}
variable mysql {
   type discrete[ 2 ] { 0, 1 };
}
probability ( D1 ) {
   table 0.0002, 0.9998;
}
probability ( D2 ) {
   table 0.0, 1.0;
}
probability ( R1 | D1 ) {
   (0) 1.0, 0.0;
   (1) 9.99999999995449e-06, 0.99999;
}
probability ( R2 | D1 ) {
   (0) 1.0, 0.0;
   (1) 9.99999999995449e-06, 0.99999;
}
probability ( R3 | D2 ) {
   (0) 1.0, 0.0;
   (1) 9.99999999995449e-06, 0.99999;
}
probability ( H1 | R1 ) {
   (0) 1.0, 0.0;
   (1) 9.99999999995449e-06, 0.99999;
}
probability ( H2 | R1 ) {
   (0) 1.0, 0.0;
   (1) 9.99999999995449e-06, 0.99999;
}
probability ( H3 | R1 ) {
   (0) 1.0, 0.0;
   (1) 9.99999999995449e-06, 0.99999;
}
probability ( H4 | R2 ) {
   (0) 1.0, 0.0;
   (1) 9.99999999995449e-06, 0.99999;
}
probability ( H5 | R2 ) {
   (0) 1.0, 0.0;
   (1) 9.99999999995449e-06, 0.99999;
}
probability ( H6 | R2 ) {
   (0) 1.0, 0.0;
   (1) 9.99999999995449e-06, 0.99999;
}
probability ( H7 | R3 ) {
   (0) 1.0, 0.0;
   (1) 9.99999999995449e-06, 0.99999;
}
probability ( H8 | R3 ) {
   (0) 1.0, 0.0;
   (1) 9.99999999995449e-06, 0.99999;
}
probability ( H9 | R3 ) {
   (0) 1.0, 0.0;
   (1) 9.99999999995449e-06, 0.99999;
}
probability ( G1 | R1 ) {
   (0) 1.0, 0.0;
   (1) 9.99999999995449e-06, 0.99999;
}
probability ( G2 | R2 ) {
   (0) 1.0, 0.0;
   (1) 9.99999999995449e-06, 0.99999;
}
probability ( G3 | R3 ) {
   (0) 1.0, 0.0;
   (1) 9.99999999995449e-06, 0.99999;
}
probability ( N1 | R1 ) {
   (0) 1.0, 0.0;
   (1) 9.99999999995449e-06, 0.99999;
}
probability ( N2 | R2 ) {
   (0) 1.0, 0.0;
   (1) 9.99999999995449e-06, 0.99999;
}
probability ( N3 | R1 ) {
   (0) 1.0, 0.0;
   (1) 9.99999999995449e-06, 0.99999;
}
probability ( N4 | R3 ) {
   (0) 1.0, 0.0;
   (1) 9.99999999995449e-06, 0.99999;
}
probability ( er_R_0 | H1 ) {
   (0) 1.0, 0.0;
   (1) 0.0, 1.0;
}
probability ( er_R_1 | H2 ) {
   (0) 1.0, 0.0;
   (1) 0.0, 1.0;
}
probability ( er_R_2 | H3 ) {
   (0) 1.0, 0.0;
   (1) 0.0, 1.0;
}
probability ( er_R_3 | H7 ) {
   (0) 1.0, 0.0;
   (1) 0.0, 1.0;
}
probability ( er_R_4 | H8 ) {
   (0) 1.0, 0.0;
   (1) 0.0, 1.0;
}
probability ( er_R_5 | H9 ) {
   (0) 1.0, 0.0;
   (1) 0.0, 1.0;
}
probability ( er_0_1 | er_R_0, er_R_1, er_P_1 ) {
   (0, 0, 0) 1.0, 0.0;
   (0, 0, 1) 1.0, 0.0;
   (0, 1, 0) 1.0, 0.0;
   (0, 1, 1) 1.0, 0.0;
   (1, 0, 0) 1.0, 0.0;
   (1, 0, 1) 1.0, 0.0;
   (1, 1, 0) 1.0, 0.0;
   (1, 1, 1) 0.0, 1.0;
}
probability ( er_0_2 | er_R_0, er_R_2, er_P_1 ) {
   (0, 0, 0) 1.0, 0.0;
   (0, 0, 1) 1.0, 0.0;
   (0, 1, 0) 1.0, 0.0;
   (0, 1, 1) 1.0, 0.0;
   (1, 0, 0) 1.0, 0.0;
   (1, 0, 1) 1.0, 0.0;
   (1, 1, 0) 1.0, 0.0;
   (1, 1, 1) 0.0, 1.0;
}
probability ( er_0_3 | er_R_0, er_R_3, er_P_2 ) {
   (0, 0, 0) 1.0, 0.0;
   (0, 0, 1) 1.0, 0.0;
   (0, 1, 0) 1.0, 0.0;
   (0, 1, 1) 1.0, 0.0;
   (1, 0, 0) 1.0, 0.0;
   (1, 0, 1) 1.0, 0.0;
   (1, 1, 0) 1.0, 0.0;
   (1, 1, 1) 0.0, 1.0;
}
probability ( er_0_4 | er_R_0, er_R_4, er_P_2 ) {
   (0, 0, 0) 1.0, 0.0;
   (0, 0, 1) 1.0, 0.0;
   (0, 1, 0) 1.0, 0.0;
   (0, 1, 1) 1.0, 0.0;
   (1, 0, 0) 1.0, 0.0;
   (1, 0, 1) 1.0, 0.0;
   (1, 1, 0) 1.0, 0.0;
   (1, 1, 1) 0.0, 1.0;
}
probability ( er_0_5 | er_R_0, er_R_5, er_P_2 ) {
   (0, 0, 0) 1.0, 0.0;
   (0, 0, 1) 1.0, 0.0;
   (0, 1, 0) 1.0, 0.0;
   (0, 1, 1) 1.0, 0.0;
   (1, 0, 0) 1.0, 0.0;
   (1, 0, 1) 1.0, 0.0;
   (1, 1, 0) 1.0, 0.0;
   (1, 1, 1) 0.0, 1.0;
}
probability ( er_1_2 | er_R_1, er_R_2, er_P_1 ) {
   (0, 0, 0) 1.0, 0.0;
   (0, 0, 1) 1.0, 0.0;
   (0, 1, 0) 1.0, 0.0;
   (0, 1, 1) 1.0, 0.0;
   (1, 0, 0) 1.0, 0.0;
   (1, 0, 1) 1.0, 0.0;
   (1, 1, 0) 1.0, 0.0;
   (1, 1, 1) 0.0, 1.0;
}
probability ( er_1_3 | er_R_1, er_R_3, er_P_2 ) {
   (0, 0, 0) 1.0, 0.0;
   (0, 0, 1) 1.0, 0.0;
   (0, 1, 0) 1.0, 0.0;
   (0, 1, 1) 1.0, 0.0;
   (1, 0, 0) 1.0, 0.0;
   (1, 0, 1) 1.0, 0.0;
   (1, 1, 0) 1.0, 0.0;
   (1, 1, 1) 0.0, 1.0;
}
probability ( er_1_4 | er_R_1, er_R_4, er_P_2 ) {
   (0, 0, 0) 1.0, 0.0;
   (0, 0, 1) 1.0, 0.0;
   (0, 1, 0) 1.0, 0.0;
   (0, 1, 1) 1.0, 0.0;
   (1, 0, 0) 1.0, 0.0;
   (1, 0, 1) 1.0, 0.0;
   (1, 1, 0) 1.0, 0.0;
   (1, 1, 1) 0.0, 1.0;
}
probability ( er_1_5 | er_R_1, er_R_5, er_P_2 ) {
   (0, 0, 0) 1.0, 0.0;
   (0, 0, 1) 1.0, 0.0;
   (0, 1, 0) 1.0, 0.0;
   (0, 1, 1) 1.0, 0.0;
   (1, 0, 0) 1.0, 0.0;
   (1, 0, 1) 1.0, 0.0;
   (1, 1, 0) 1.0, 0.0;
   (1, 1, 1) 0.0, 1.0;
}
probability ( er_2_3 | er_R_2, er_R_3, er_P_2 ) {
   (0, 0, 0) 1.0, 0.0;
   (0, 0, 1) 1.0, 0.0;
   (0, 1, 0) 1.0, 0.0;
   (0, 1, 1) 1.0, 0.0;
   (1, 0, 0) 1.0, 0.0;
   (1, 0, 1) 1.0, 0.0;
   (1, 1, 0) 1.0, 0.0;
   (1, 1, 1) 0.0, 1.0;
}
probability ( er_2_4 | er_R_2, er_R_4, er_P_2 ) {
   (0, 0, 0) 1.0, 0.0;
   (0, 0, 1) 1.0, 0.0;
   (0, 1, 0) 1.0, 0.0;
   (0, 1, 1) 1.0, 0.0;
   (1, 0, 0) 1.0, 0.0;
   (1, 0, 1) 1.0, 0.0;
   (1, 1, 0) 1.0, 0.0;
   (1, 1, 1) 0.0, 1.0;
}
probability ( er_2_5 | er_R_2, er_R_5, er_P_2 ) {
   (0, 0, 0) 1.0, 0.0;
   (0, 0, 1) 1.0, 0.0;
   (0, 1, 0) 1.0, 0.0;
   (0, 1, 1) 1.0, 0.0;
   (1, 0, 0) 1.0, 0.0;
   (1, 0, 1) 1.0, 0.0;
   (1, 1, 0) 1.0, 0.0;
   (1, 1, 1) 0.0, 1.0;
}
probability ( er_3_4 | er_R_3, er_R_4, er_P_3 ) {
   (0, 0, 0) 1.0, 0.0;
   (0, 0, 1) 1.0, 0.0;
   (0, 1, 0) 1.0, 0.0;
   (0, 1, 1) 1.0, 0.0;
   (1, 0, 0) 1.0, 0.0;
   (1, 0, 1) 1.0, 0.0;
   (1, 1, 0) 1.0, 0.0;
   (1, 1, 1) 0.0, 1.0;
}
probability ( er_3_5 | er_R_3, er_R_5, er_P_3 ) {
   (0, 0, 0) 1.0, 0.0;
   (0, 0, 1) 1.0, 0.0;
   (0, 1, 0) 1.0, 0.0;
   (0, 1, 1) 1.0, 0.0;
   (1, 0, 0) 1.0, 0.0;
   (1, 0, 1) 1.0, 0.0;
   (1, 1, 0) 1.0, 0.0;
   (1, 1, 1) 0.0, 1.0;
}
probability ( er_4_5 | er_R_4, er_R_5, er_P_3 ) {
   (0, 0, 0) 1.0, 0.0;
   (0, 0, 1) 1.0, 0.0;
   (0, 1, 0) 1.0, 0.0;
   (0, 1, 1) 1.0, 0.0;
   (1, 0, 0) 1.0, 0.0;
   (1, 0, 1) 1.0, 0.0;
   (1, 1, 0) 1.0, 0.0;
   (1, 1, 1) 0.0, 1.0;
}
probability ( er_P_1 | N1 ) {
   (0) 1.0, 0.0;
   (1) 0.0, 1.0;
}
probability ( er_P_2 | N3, N1, G3, N4, G1 ) {
   (0, 0, 0, 0, 0) 1.0, 0.0;
   (0, 0, 0, 0, 1) 1.0, 0.0;
   (0, 0, 0, 1, 0) 1.0, 0.0;
   (0, 0, 0, 1, 1) 1.0, 0.0;
   (0, 0, 1, 0, 0) 1.0, 0.0;
   (0, 0, 1, 0, 1) 1.0, 0.0;
   (0, 0, 1, 1, 0) 1.0, 0.0;
   (0, 0, 1, 1, 1) 1.0, 0.0;
   (0, 1, 0, 0, 0) 1.0, 0.0;
   (0, 1, 0, 0, 1) 1.0, 0.0;
   (0, 1, 0, 1, 0) 1.0, 0.0;
   (0, 1, 0, 1, 1) 1.0, 0.0;
   (0, 1, 1, 0, 0) 1.0, 0.0;
   (0, 1, 1, 0, 1) 1.0, 0.0;
   (0, 1, 1, 1, 0) 1.0, 0.0;
   (0, 1, 1, 1, 1) 1.0, 0.0;
   (1, 0, 0, 0, 0) 1.0, 0.0;
   (1, 0, 0, 0, 1) 1.0, 0.0;
   (1, 0, 0, 1, 0) 1.0, 0.0;
   (1, 0, 0, 1, 1) 1.0, 0.0;
   (1, 0, 1, 0, 0) 1.0, 0.0;
   (1, 0, 1, 0, 1) 1.0, 0.0;
   (1, 0, 1, 1, 0) 1.0, 0.0;
   (1, 0, 1, 1, 1) 1.0, 0.0;
   (1, 1, 0, 0, 0) 1.0, 0.0;
   (1, 1, 0, 0, 1) 1.0, 0.0;
   (1, 1, 0, 1, 0) 1.0, 0.0;
   (1, 1, 0, 1, 1) 1.0, 0.0;
   (1, 1, 1, 0, 0) 1.0, 0.0;
   (1, 1, 1, 0, 1) 1.0, 0.0;
   (1, 1, 1, 1, 0) 1.0, 0.0;
   (1, 1, 1, 1, 1) 0.0, 1.0;
}
probability ( er_P_3 | N4 ) {
   (0) 1.0, 0.0;
   (1) 0.0, 1.0;
}
probability ( er_K | er_A_0, er_A_1, er_A_2, er_A_3, er_A_4, er_A_5 ) {
   (0, 0, 0, 0, 0, 0) 1.0, 0.0;
   (0, 0, 0, 0, 0, 1) 1.0, 0.0;
   (0, 0, 0, 0, 1, 0) 1.0, 0.0;
   (0, 0, 0, 0, 1, 1) 1.0, 0.0;
   (0, 0, 0, 1, 0, 0) 1.0, 0.0;
   (0, 0, 0, 1, 0, 1) 1.0, 0.0;
   (0, 0, 0, 1, 1, 0) 1.0, 0.0;
   (0, 0, 0, 1, 1, 1) 1.0, 0.0;
   (0, 0, 1, 0, 0, 0) 1.0, 0.0;
   (0, 0, 1, 0, 0, 1) 1.0, 0.0;
   (0, 0, 1, 0, 1, 0) 1.0, 0.0;
   (0, 0, 1, 0, 1, 1) 1.0, 0.0;
   (0, 0, 1, 1, 0, 0) 1.0, 0.0;
   (0, 0, 1, 1, 0, 1) 1.0, 0.0;
   (0, 0, 1, 1, 1, 0) 1.0, 0.0;
   (0, 0, 1, 1, 1, 1) 1.0, 0.0;
   (0, 1, 0, 0, 0, 0) 1.0, 0.0;
   (0, 1, 0, 0, 0, 1) 1.0, 0.0;
   (0, 1, 0, 0, 1, 0) 1.0, 0.0;
   (0, 1, 0, 0, 1, 1) 1.0, 0.0;
   (0, 1, 0, 1, 0, 0) 1.0, 0.0;
   (0, 1, 0, 1, 0, 1) 1.0, 0.0;
   (0, 1, 0, 1, 1, 0) 1.0, 0.0;
   (0, 1, 0, 1, 1, 1) 1.0, 0.0;
   (0, 1, 1, 0, 0, 0) 1.0, 0.0;
   (0, 1, 1, 0, 0, 1) 1.0, 0.0;
   (0, 1, 1, 0, 1, 0) 1.0, 0.0;
   (0, 1, 1, 0, 1, 1) 1.0, 0.0;
   (0, 1, 1, 1, 0, 0) 1.0, 0.0;
   (0, 1, 1, 1, 0, 1) 1.0, 0.0;
   (0, 1, 1, 1, 1, 0) 1.0, 0.0;
   (0, 1, 1, 1, 1, 1) 0.0, 1.0;
   (1, 0, 0, 0, 0, 0) 1.0, 0.0;
   (1, 0, 0, 0, 0, 1) 1.0, 0.0;
   (1, 0, 0, 0, 1, 0) 1.0, 0.0;
   (1, 0, 0, 0, 1, 1) 1.0, 0.0;
   (1, 0, 0, 1, 0, 0) 1.0, 0.0;
   (1, 0, 0, 1, 0, 1) 1.0, 0.0;
   (1, 0, 0, 1, 1, 0) 1.0, 0.0;
   (1, 0, 0, 1, 1, 1) 1.0, 0.0;
   (1, 0, 1, 0, 0, 0) 1.0, 0.0;
   (1, 0, 1, 0, 0, 1) 1.0, 0.0;
   (1, 0, 1, 0, 1, 0) 1.0, 0.0;
   (1, 0, 1, 0, 1, 1) 1.0, 0.0;
   (1, 0, 1, 1, 0, 0) 1.0, 0.0;
   (1, 0, 1, 1, 0, 1) 1.0, 0.0;
   (1, 0, 1, 1, 1, 0) 1.0, 0.0;
   (1, 0, 1, 1, 1, 1) 0.0, 1.0;
   (1, 1, 0, 0, 0, 0) 1.0, 0.0;
   (1, 1, 0, 0, 0, 1) 1.0, 0.0;
   (1, 1, 0, 0, 1, 0) 1.0, 0.0;
   (1, 1, 0, 0, 1, 1) 1.0, 0.0;
   (1, 1, 0, 1, 0, 0) 1.0, 0.0;
   (1, 1, 0, 1, 0, 1) 1.0, 0.0;
   (1, 1, 0, 1, 1, 0) 1.0, 0.0;
   (1, 1, 0, 1, 1, 1) 0.0, 1.0;
   (1, 1, 1, 0, 0, 0) 1.0, 0.0;
   (1, 1, 1, 0, 0, 1) 1.0, 0.0;
   (1, 1, 1, 0, 1, 0) 1.0, 0.0;
   (1, 1, 1, 0, 1, 1) 0.0, 1.0;
   (1, 1, 1, 1, 0, 0) 1.0, 0.0;
   (1, 1, 1, 1, 0, 1) 0.0, 1.0;
   (1, 1, 1, 1, 1, 0) 0.0, 1.0;
   (1, 1, 1, 1, 1, 1) 0.0, 1.0;
}
probability ( er_A_0 | er_0_1, er_0_2, er_0_3, er_0_4, er_0_5 ) {
   (0, 0, 0, 0, 0) 1.0, 0.0;
   (0, 0, 0, 0, 1) 1.0, 0.0;
   (0, 0, 0, 1, 0) 1.0, 0.0;
   (0, 0, 0, 1, 1) 1.0, 0.0;
   (0, 0, 1, 0, 0) 1.0, 0.0;
   (0, 0, 1, 0, 1) 1.0, 0.0;
   (0, 0, 1, 1, 0) 1.0, 0.0;
   (0, 0, 1, 1, 1) 1.0, 0.0;
   (0, 1, 0, 0, 0) 1.0, 0.0;
   (0, 1, 0, 0, 1) 1.0, 0.0;
   (0, 1, 0, 1, 0) 1.0, 0.0;
   (0, 1, 0, 1, 1) 1.0, 0.0;
   (0, 1, 1, 0, 0) 1.0, 0.0;
   (0, 1, 1, 0, 1) 1.0, 0.0;
   (0, 1, 1, 1, 0) 1.0, 0.0;
   (0, 1, 1, 1, 1) 0.0, 1.0;
   (1, 0, 0, 0, 0) 1.0, 0.0;
   (1, 0, 0, 0, 1) 1.0, 0.0;
   (1, 0, 0, 1, 0) 1.0, 0.0;
   (1, 0, 0, 1, 1) 1.0, 0.0;
   (1, 0, 1, 0, 0) 1.0, 0.0;
   (1, 0, 1, 0, 1) 1.0, 0.0;
   (1, 0, 1, 1, 0) 1.0, 0.0;
   (1, 0, 1, 1, 1) 0.0, 1.0;
   (1, 1, 0, 0, 0) 1.0, 0.0;
   (1, 1, 0, 0, 1) 1.0, 0.0;
   (1, 1, 0, 1, 0) 1.0, 0.0;
   (1, 1, 0, 1, 1) 0.0, 1.0;
   (1, 1, 1, 0, 0) 1.0, 0.0;
   (1, 1, 1, 0, 1) 0.0, 1.0;
   (1, 1, 1, 1, 0) 0.0, 1.0;
   (1, 1, 1, 1, 1) 0.0, 1.0;
}
probability ( er_A_1 | er_0_1, er_1_2, er_1_3, er_1_4, er_1_5 ) {
   (0, 0, 0, 0, 0) 1.0, 0.0;
   (0, 0, 0, 0, 1) 1.0, 0.0;
   (0, 0, 0, 1, 0) 1.0, 0.0;
   (0, 0, 0, 1, 1) 1.0, 0.0;
   (0, 0, 1, 0, 0) 1.0, 0.0;
   (0, 0, 1, 0, 1) 1.0, 0.0;
   (0, 0, 1, 1, 0) 1.0, 0.0;
   (0, 0, 1, 1, 1) 1.0, 0.0;
   (0, 1, 0, 0, 0) 1.0, 0.0;
   (0, 1, 0, 0, 1) 1.0, 0.0;
   (0, 1, 0, 1, 0) 1.0, 0.0;
   (0, 1, 0, 1, 1) 1.0, 0.0;
   (0, 1, 1, 0, 0) 1.0, 0.0;
   (0, 1, 1, 0, 1) 1.0, 0.0;
   (0, 1, 1, 1, 0) 1.0, 0.0;
   (0, 1, 1, 1, 1) 0.0, 1.0;
   (1, 0, 0, 0, 0) 1.0, 0.0;
   (1, 0, 0, 0, 1) 1.0, 0.0;
   (1, 0, 0, 1, 0) 1.0, 0.0;
   (1, 0, 0, 1, 1) 1.0, 0.0;
   (1, 0, 1, 0, 0) 1.0, 0.0;
   (1, 0, 1, 0, 1) 1.0, 0.0;
   (1, 0, 1, 1, 0) 1.0, 0.0;
   (1, 0, 1, 1, 1) 0.0, 1.0;
   (1, 1, 0, 0, 0) 1.0, 0.0;
   (1, 1, 0, 0, 1) 1.0, 0.0;
   (1, 1, 0, 1, 0) 1.0, 0.0;
   (1, 1, 0, 1, 1) 0.0, 1.0;
   (1, 1, 1, 0, 0) 1.0, 0.0;
   (1, 1, 1, 0, 1) 0.0, 1.0;
   (1, 1, 1, 1, 0) 0.0, 1.0;
   (1, 1, 1, 1, 1) 0.0, 1.0;
}
probability ( er_A_2 | er_0_2, er_1_2, er_2_3, er_2_4, er_2_5 ) {
   (0, 0, 0, 0, 0) 1.0, 0.0;
   (0, 0, 0, 0, 1) 1.0, 0.0;
   (0, 0, 0, 1, 0) 1.0, 0.0;
   (0, 0, 0, 1, 1) 1.0, 0.0;
   (0, 0, 1, 0, 0) 1.0, 0.0;
   (0, 0, 1, 0, 1) 1.0, 0.0;
   (0, 0, 1, 1, 0) 1.0, 0.0;
   (0, 0, 1, 1, 1) 1.0, 0.0;
   (0, 1, 0, 0, 0) 1.0, 0.0;
   (0, 1, 0, 0, 1) 1.0, 0.0;
   (0, 1, 0, 1, 0) 1.0, 0.0;
   (0, 1, 0, 1, 1) 1.0, 0.0;
   (0, 1, 1, 0, 0) 1.0, 0.0;
   (0, 1, 1, 0, 1) 1.0, 0.0;
   (0, 1, 1, 1, 0) 1.0, 0.0;
   (0, 1, 1, 1, 1) 0.0, 1.0;
   (1, 0, 0, 0, 0) 1.0, 0.0;
   (1, 0, 0, 0, 1) 1.0, 0.0;
   (1, 0, 0, 1, 0) 1.0, 0.0;
   (1, 0, 0, 1, 1) 1.0, 0.0;
   (1, 0, 1, 0, 0) 1.0, 0.0;
   (1, 0, 1, 0, 1) 1.0, 0.0;
   (1, 0, 1, 1, 0) 1.0, 0.0;
   (1, 0, 1, 1, 1) 0.0, 1.0;
   (1, 1, 0, 0, 0) 1.0, 0.0;
   (1, 1, 0, 0, 1) 1.0, 0.0;
   (1, 1, 0, 1, 0) 1.0, 0.0;
   (1, 1, 0, 1, 1) 0.0, 1.0;
   (1, 1, 1, 0, 0) 1.0, 0.0;
   (1, 1, 1, 0, 1) 0.0, 1.0;
   (1, 1, 1, 1, 0) 0.0, 1.0;
   (1, 1, 1, 1, 1) 0.0, 1.0;
}
probability ( er_A_3 | er_0_3, er_1_3, er_2_3, er_3_4, er_3_5 ) {
   (0, 0, 0, 0, 0) 1.0, 0.0;
   (0, 0, 0, 0, 1) 1.0, 0.0;
   (0, 0, 0, 1, 0) 1.0, 0.0;
   (0, 0, 0, 1, 1) 1.0, 0.0;
   (0, 0, 1, 0, 0) 1.0, 0.0;
   (0, 0, 1, 0, 1) 1.0, 0.0;
   (0, 0, 1, 1, 0) 1.0, 0.0;
   (0, 0, 1, 1, 1) 1.0, 0.0;
   (0, 1, 0, 0, 0) 1.0, 0.0;
   (0, 1, 0, 0, 1) 1.0, 0.0;
   (0, 1, 0, 1, 0) 1.0, 0.0;
   (0, 1, 0, 1, 1) 1.0, 0.0;
   (0, 1, 1, 0, 0) 1.0, 0.0;
   (0, 1, 1, 0, 1) 1.0, 0.0;
   (0, 1, 1, 1, 0) 1.0, 0.0;
   (0, 1, 1, 1, 1) 0.0, 1.0;
   (1, 0, 0, 0, 0) 1.0, 0.0;
   (1, 0, 0, 0, 1) 1.0, 0.0;
   (1, 0, 0, 1, 0) 1.0, 0.0;
   (1, 0, 0, 1, 1) 1.0, 0.0;
   (1, 0, 1, 0, 0) 1.0, 0.0;
   (1, 0, 1, 0, 1) 1.0, 0.0;
   (1, 0, 1, 1, 0) 1.0, 0.0;
   (1, 0, 1, 1, 1) 0.0, 1.0;
   (1, 1, 0, 0, 0) 1.0, 0.0;
   (1, 1, 0, 0, 1) 1.0, 0.0;
   (1, 1, 0, 1, 0) 1.0, 0.0;
   (1, 1, 0, 1, 1) 0.0, 1.0;
   (1, 1, 1, 0, 0) 1.0, 0.0;
   (1, 1, 1, 0, 1) 0.0, 1.0;
   (1, 1, 1, 1, 0) 0.0, 1.0;
   (1, 1, 1, 1, 1) 0.0, 1.0;
}
probability ( er_A_4 | er_0_4, er_1_4, er_2_4, er_3_4, er_4_5 ) {
   (0, 0, 0, 0, 0) 1.0, 0.0;
   (0, 0, 0, 0, 1) 1.0, 0.0;
   (0, 0, 0, 1, 0) 1.0, 0.0;
   (0, 0, 0, 1, 1) 1.0, 0.0;
   (0, 0, 1, 0, 0) 1.0, 0.0;
   (0, 0, 1, 0, 1) 1.0, 0.0;
   (0, 0, 1, 1, 0) 1.0, 0.0;
   (0, 0, 1, 1, 1) 1.0, 0.0;
   (0, 1, 0, 0, 0) 1.0, 0.0;
   (0, 1, 0, 0, 1) 1.0, 0.0;
   (0, 1, 0, 1, 0) 1.0, 0.0;
   (0, 1, 0, 1, 1) 1.0, 0.0;
   (0, 1, 1, 0, 0) 1.0, 0.0;
   (0, 1, 1, 0, 1) 1.0, 0.0;
   (0, 1, 1, 1, 0) 1.0, 0.0;
   (0, 1, 1, 1, 1) 0.0, 1.0;
   (1, 0, 0, 0, 0) 1.0, 0.0;
   (1, 0, 0, 0, 1) 1.0, 0.0;
   (1, 0, 0, 1, 0) 1.0, 0.0;
   (1, 0, 0, 1, 1) 1.0, 0.0;
   (1, 0, 1, 0, 0) 1.0, 0.0;
   (1, 0, 1, 0, 1) 1.0, 0.0;
   (1, 0, 1, 1, 0) 1.0, 0.0;
   (1, 0, 1, 1, 1) 0.0, 1.0;
   (1, 1, 0, 0, 0) 1.0, 0.0;
   (1, 1, 0, 0, 1) 1.0, 0.0;
   (1, 1, 0, 1, 0) 1.0, 0.0;
   (1, 1, 0, 1, 1) 0.0, 1.0;
   (1, 1, 1, 0, 0) 1.0, 0.0;
   (1, 1, 1, 0, 1) 0.0, 1.0;
   (1, 1, 1, 1, 0) 0.0, 1.0;
   (1, 1, 1, 1, 1) 0.0, 1.0;
}
probability ( er_A_5 | er_0_5, er_1_5, er_2_5, er_3_5, er_4_5 ) {
   (0, 0, 0, 0, 0) 1.0, 0.0;
   (0, 0, 0, 0, 1) 1.0, 0.0;
   (0, 0, 0, 1, 0) 1.0, 0.0;
   (0, 0, 0, 1, 1) 1.0, 0.0;
   (0, 0, 1, 0, 0) 1.0, 0.0;
   (0, 0, 1, 0, 1) 1.0, 0.0;
   (0, 0, 1, 1, 0) 1.0, 0.0;
   (0, 0, 1, 1, 1) 1.0, 0.0;
   (0, 1, 0, 0, 0) 1.0, 0.0;
   (0, 1, 0, 0, 1) 1.0, 0.0;
   (0, 1, 0, 1, 0) 1.0, 0.0;
   (0, 1, 0, 1, 1) 1.0, 0.0;
   (0, 1, 1, 0, 0) 1.0, 0.0;
   (0, 1, 1, 0, 1) 1.0, 0.0;
   (0, 1, 1, 1, 0) 1.0, 0.0;
   (0, 1, 1, 1, 1) 0.0, 1.0;
   (1, 0, 0, 0, 0) 1.0, 0.0;
   (1, 0, 0, 0, 1) 1.0, 0.0;
   (1, 0, 0, 1, 0) 1.0, 0.0;
   (1, 0, 0, 1, 1) 1.0, 0.0;
   (1, 0, 1, 0, 0) 1.0, 0.0;
   (1, 0, 1, 0, 1) 1.0, 0.0;
   (1, 0, 1, 1, 0) 1.0, 0.0;
   (1, 0, 1, 1, 1) 0.0, 1.0;
   (1, 1, 0, 0, 0) 1.0, 0.0;
   (1, 1, 0, 0, 1) 1.0, 0.0;
   (1, 1, 0, 1, 0) 1.0, 0.0;
   (1, 1, 0, 1, 1) 0.0, 1.0;
   (1, 1, 1, 0, 0) 1.0, 0.0;
   (1, 1, 1, 0, 1) 0.0, 1.0;
   (1, 1, 1, 1, 0) 0.0, 1.0;
   (1, 1, 1, 1, 1) 0.0, 1.0;
}
probability ( er_0_G1 | er_A_0, G1, er_P_1 ) {
   (0, 0, 0) 1.0, 0.0;
   (0, 0, 1) 1.0, 0.0;
   (0, 1, 0) 1.0, 0.0;
   (0, 1, 1) 1.0, 0.0;
   (1, 0, 0) 1.0, 0.0;
   (1, 0, 1) 1.0, 0.0;
   (1, 1, 0) 1.0, 0.0;
   (1, 1, 1) 0.0, 1.0;
}
probability ( er_1_G1 | er_A_1, G1, er_P_1 ) {
   (0, 0, 0) 1.0, 0.0;
   (0, 0, 1) 1.0, 0.0;
   (0, 1, 0) 1.0, 0.0;
   (0, 1, 1) 1.0, 0.0;
   (1, 0, 0) 1.0, 0.0;
   (1, 0, 1) 1.0, 0.0;
   (1, 1, 0) 1.0, 0.0;
   (1, 1, 1) 0.0, 1.0;
}
probability ( er_2_G1 | er_A_2, G1, er_P_1 ) {
   (0, 0, 0) 1.0, 0.0;
   (0, 0, 1) 1.0, 0.0;
   (0, 1, 0) 1.0, 0.0;
   (0, 1, 1) 1.0, 0.0;
   (1, 0, 0) 1.0, 0.0;
   (1, 0, 1) 1.0, 0.0;
   (1, 1, 0) 1.0, 0.0;
   (1, 1, 1) 0.0, 1.0;
}
probability ( er_3_G1 | er_A_3, G1, er_P_4 ) {
   (0, 0, 0) 1.0, 0.0;
   (0, 0, 1) 1.0, 0.0;
   (0, 1, 0) 1.0, 0.0;
   (0, 1, 1) 1.0, 0.0;
   (1, 0, 0) 1.0, 0.0;
   (1, 0, 1) 1.0, 0.0;
   (1, 1, 0) 1.0, 0.0;
   (1, 1, 1) 0.0, 1.0;
}
probability ( er_4_G1 | er_A_4, G1, er_P_4 ) {
   (0, 0, 0) 1.0, 0.0;
   (0, 0, 1) 1.0, 0.0;
   (0, 1, 0) 1.0, 0.0;
   (0, 1, 1) 1.0, 0.0;
   (1, 0, 0) 1.0, 0.0;
   (1, 0, 1) 1.0, 0.0;
   (1, 1, 0) 1.0, 0.0;
   (1, 1, 1) 0.0, 1.0;
}
probability ( er_5_G1 | er_A_5, G1, er_P_4 ) {
   (0, 0, 0) 1.0, 0.0;
   (0, 0, 1) 1.0, 0.0;
   (0, 1, 0) 1.0, 0.0;
   (0, 1, 1) 1.0, 0.0;
   (1, 0, 0) 1.0, 0.0;
   (1, 0, 1) 1.0, 0.0;
   (1, 1, 0) 1.0, 0.0;
   (1, 1, 1) 0.0, 1.0;
}
probability ( er_P_4 | N4, G3, N3 ) {
   (0, 0, 0) 1.0, 0.0;
   (0, 0, 1) 1.0, 0.0;
   (0, 1, 0) 1.0, 0.0;
   (0, 1, 1) 1.0, 0.0;
   (1, 0, 0) 1.0, 0.0;
   (1, 0, 1) 1.0, 0.0;
   (1, 1, 0) 1.0, 0.0;
   (1, 1, 1) 0.0, 1.0;
}
probability ( er_EXT | er_0_G1, er_1_G1, er_2_G1, er_3_G1, er_4_G1, er_5_G1 ) {
   (0, 0, 0, 0, 0, 0) 1.0, 0.0;
   (0, 0, 0, 0, 0, 1) 0.0, 1.0;
   (0, 0, 0, 0, 1, 0) 0.0, 1.0;
   (0, 0, 0, 0, 1, 1) 0.0, 1.0;
   (0, 0, 0, 1, 0, 0) 0.0, 1.0;
   (0, 0, 0, 1, 0, 1) 0.0, 1.0;
   (0, 0, 0, 1, 1, 0) 0.0, 1.0;
   (0, 0, 0, 1, 1, 1) 0.0, 1.0;
   (0, 0, 1, 0, 0, 0) 0.0, 1.0;
   (0, 0, 1, 0, 0, 1) 0.0, 1.0;
   (0, 0, 1, 0, 1, 0) 0.0, 1.0;
   (0, 0, 1, 0, 1, 1) 0.0, 1.0;
   (0, 0, 1, 1, 0, 0) 0.0, 1.0;
   (0, 0, 1, 1, 0, 1) 0.0, 1.0;
   (0, 0, 1, 1, 1, 0) 0.0, 1.0;
   (0, 0, 1, 1, 1, 1) 0.0, 1.0;
   (0, 1, 0, 0, 0, 0) 0.0, 1.0;
   (0, 1, 0, 0, 0, 1) 0.0, 1.0;
   (0, 1, 0, 0, 1, 0) 0.0, 1.0;
   (0, 1, 0, 0, 1, 1) 0.0, 1.0;
   (0, 1, 0, 1, 0, 0) 0.0, 1.0;
   (0, 1, 0, 1, 0, 1) 0.0, 1.0;
   (0, 1, 0, 1, 1, 0) 0.0, 1.0;
   (0, 1, 0, 1, 1, 1) 0.0, 1.0;
   (0, 1, 1, 0, 0, 0) 0.0, 1.0;
   (0, 1, 1, 0, 0, 1) 0.0, 1.0;
   (0, 1, 1, 0, 1, 0) 0.0, 1.0;
   (0, 1, 1, 0, 1, 1) 0.0, 1.0;
   (0, 1, 1, 1, 0, 0) 0.0, 1.0;
   (0, 1, 1, 1, 0, 1) 0.0, 1.0;
   (0, 1, 1, 1, 1, 0) 0.0, 1.0;
   (0, 1, 1, 1, 1, 1) 0.0, 1.0;
   (1, 0, 0, 0, 0, 0) 0.0, 1.0;
   (1, 0, 0, 0, 0, 1) 0.0, 1.0;
   (1, 0, 0, 0, 1, 0) 0.0, 1.0;
   (1, 0, 0, 0, 1, 1) 0.0, 1.0;
   (1, 0, 0, 1, 0, 0) 0.0, 1.0;
   (1, 0, 0, 1, 0, 1) 0.0, 1.0;
   (1, 0, 0, 1, 1, 0) 0.0, 1.0;
   (1, 0, 0, 1, 1, 1) 0.0, 1.0;
   (1, 0, 1, 0, 0, 0) 0.0, 1.0;
   (1, 0, 1, 0, 0, 1) 0.0, 1.0;
   (1, 0, 1, 0, 1, 0) 0.0, 1.0;
   (1, 0, 1, 0, 1, 1) 0.0, 1.0;
   (1, 0, 1, 1, 0, 0) 0.0, 1.0;
   (1, 0, 1, 1, 0, 1) 0.0, 1.0;
   (1, 0, 1, 1, 1, 0) 0.0, 1.0;
   (1, 0, 1, 1, 1, 1) 0.0, 1.0;
   (1, 1, 0, 0, 0, 0) 0.0, 1.0;
   (1, 1, 0, 0, 0, 1) 0.0, 1.0;
   (1, 1, 0, 0, 1, 0) 0.0, 1.0;
   (1, 1, 0, 0, 1, 1) 0.0, 1.0;
   (1, 1, 0, 1, 0, 0) 0.0, 1.0;
   (1, 1, 0, 1, 0, 1) 0.0, 1.0;
   (1, 1, 0, 1, 1, 0) 0.0, 1.0;
   (1, 1, 0, 1, 1, 1) 0.0, 1.0;
   (1, 1, 1, 0, 0, 0) 0.0, 1.0;
   (1, 1, 1, 0, 0, 1) 0.0, 1.0;
   (1, 1, 1, 0, 1, 0) 0.0, 1.0;
   (1, 1, 1, 0, 1, 1) 0.0, 1.0;
   (1, 1, 1, 1, 0, 0) 0.0, 1.0;
   (1, 1, 1, 1, 0, 1) 0.0, 1.0;
   (1, 1, 1, 1, 1, 0) 0.0, 1.0;
   (1, 1, 1, 1, 1, 1) 0.0, 1.0;
}
probability ( er | er_K, er_EXT ) {
   (0, 0) 1.0, 0.0;
   (0, 1) 1.0, 0.0;
   (1, 0) 1.0, 0.0;
   (1, 1) 0.0, 1.0;
}
probability ( mysql_R_0 | H4 ) {
   (0) 1.0, 0.0;
   (1) 0.0, 1.0;
}
probability ( mysql_R_1 | H5 ) {
   (0) 1.0, 0.0;
   (1) 0.0, 1.0;
}
probability ( mysql_R_2 | H6 ) {
   (0) 1.0, 0.0;
   (1) 0.0, 1.0;
}
probability ( mysql_0_1 | mysql_R_0, mysql_R_1, mysql_P_1 ) {
   (0, 0, 0) 1.0, 0.0;
   (0, 0, 1) 1.0, 0.0;
   (0, 1, 0) 1.0, 0.0;
   (0, 1, 1) 1.0, 0.0;
   (1, 0, 0) 1.0, 0.0;
   (1, 0, 1) 1.0, 0.0;
   (1, 1, 0) 1.0, 0.0;
   (1, 1, 1) 0.0, 1.0;
}
probability ( mysql_0_2 | mysql_R_0, mysql_R_2, mysql_P_1 ) {
   (0, 0, 0) 1.0, 0.0;
   (0, 0, 1) 1.0, 0.0;
   (0, 1, 0) 1.0, 0.0;
   (0, 1, 1) 1.0, 0.0;
   (1, 0, 0) 1.0, 0.0;
   (1, 0, 1) 1.0, 0.0;
   (1, 1, 0) 1.0, 0.0;
   (1, 1, 1) 0.0, 1.0;
}
probability ( mysql_1_2 | mysql_R_1, mysql_R_2, mysql_P_1 ) {
   (0, 0, 0) 1.0, 0.0;
   (0, 0, 1) 1.0, 0.0;
   (0, 1, 0) 1.0, 0.0;
   (0, 1, 1) 1.0, 0.0;
   (1, 0, 0) 1.0, 0.0;
   (1, 0, 1) 1.0, 0.0;
   (1, 1, 0) 1.0, 0.0;
   (1, 1, 1) 0.0, 1.0;
}
probability ( mysql_P_1 | N2 ) {
   (0) 1.0, 0.0;
   (1) 0.0, 1.0;
}
probability ( mysql_K | mysql_A_0, mysql_A_1, mysql_A_2 ) {
   (0, 0, 0) 1.0, 0.0;
   (0, 0, 1) 1.0, 0.0;
   (0, 1, 0) 1.0, 0.0;
   (0, 1, 1) 0.0, 1.0;
   (1, 0, 0) 1.0, 0.0;
   (1, 0, 1) 0.0, 1.0;
   (1, 1, 0) 0.0, 1.0;
   (1, 1, 1) 0.0, 1.0;
}
probability ( mysql_A_0 | mysql_0_1, mysql_0_2 ) {
   (0, 0) 1.0, 0.0;
   (0, 1) 0.0, 1.0;
   (1, 0) 0.0, 1.0;
   (1, 1) 0.0, 1.0;
}
probability ( mysql_A_1 | mysql_0_1, mysql_1_2 ) {
   (0, 0) 1.0, 0.0;
   (0, 1) 0.0, 1.0;
   (1, 0) 0.0, 1.0;
   (1, 1) 0.0, 1.0;
}
probability ( mysql_A_2 | mysql_0_2, mysql_1_2 ) {
   (0, 0) 1.0, 0.0;
   (0, 1) 0.0, 1.0;
   (1, 0) 0.0, 1.0;
   (1, 1) 0.0, 1.0;
}
probability ( mysql_0_G2 | mysql_A_0, G2, mysql_P_1 ) {
   (0, 0, 0) 1.0, 0.0;
   (0, 0, 1) 1.0, 0.0;
   (0, 1, 0) 1.0, 0.0;
   (0, 1, 1) 1.0, 0.0;
   (1, 0, 0) 1.0, 0.0;
   (1, 0, 1) 1.0, 0.0;
   (1, 1, 0) 1.0, 0.0;
   (1, 1, 1) 0.0, 1.0;
}
probability ( mysql_1_G2 | mysql_A_1, G2, mysql_P_1 ) {
   (0, 0, 0) 1.0, 0.0;
   (0, 0, 1) 1.0, 0.0;
   (0, 1, 0) 1.0, 0.0;
   (0, 1, 1) 1.0, 0.0;
   (1, 0, 0) 1.0, 0.0;
   (1, 0, 1) 1.0, 0.0;
   (1, 1, 0) 1.0, 0.0;
   (1, 1, 1) 0.0, 1.0;
}
probability ( mysql_2_G2 | mysql_A_2, G2, mysql_P_1 ) {
   (0, 0, 0) 1.0, 0.0;
   (0, 0, 1) 1.0, 0.0;
   (0, 1, 0) 1.0, 0.0;
   (0, 1, 1) 1.0, 0.0;
   (1, 0, 0) 1.0, 0.0;
   (1, 0, 1) 1.0, 0.0;
   (1, 1, 0) 1.0, 0.0;
   (1, 1, 1) 0.0, 1.0;
}
probability ( mysql_EXT | mysql_0_G2, mysql_1_G2, mysql_2_G2 ) {
   (0, 0, 0) 1.0, 0.0;
   (0, 0, 1) 0.0, 1.0;
   (0, 1, 0) 0.0, 1.0;
   (0, 1, 1) 0.0, 1.0;
   (1, 0, 0) 0.0, 1.0;
   (1, 0, 1) 0.0, 1.0;
   (1, 1, 0) 0.0, 1.0;
   (1, 1, 1) 0.0, 1.0;
}
probability ( mysql | mysql_K, mysql_EXT ) {
   (0, 0) 1.0, 0.0;
   (0, 1) 1.0, 0.0;
   (1, 0) 1.0, 0.0;
   (1, 1) 0.0, 1.0;
}
